FANN_FLO_2.1
num_layers=3
learning_rate=0.700000
connection_rate=1.000000
network_type=0
learning_momentum=0.000000
training_algorithm=2
train_error_function=1
train_stop_function=0
cascade_output_change_fraction=0.010000
quickprop_decay=-0.000100
quickprop_mu=1.750000
rprop_increase_factor=1.200000
rprop_decrease_factor=0.500000
rprop_delta_min=0.000000
rprop_delta_max=50.000000
rprop_delta_zero=0.100000
cascade_output_stagnation_epochs=12
cascade_candidate_change_fraction=0.010000
cascade_candidate_stagnation_epochs=12
cascade_max_out_epochs=150
cascade_min_out_epochs=50
cascade_max_cand_epochs=150
cascade_min_cand_epochs=50
cascade_num_candidate_groups=2
bit_fail_limit=3.49999994039535522461e-01
cascade_candidate_limit=1.00000000000000000000e+03
cascade_weight_multiplier=4.00000005960464477539e-01
cascade_activation_functions_count=10
cascade_activation_functions=3 5 7 8 10 11 14 15 16 17 
cascade_activation_steepnesses_count=4
cascade_activation_steepnesses=2.50000000000000000000e-01 5.00000000000000000000e-01 7.50000000000000000000e-01 1.00000000000000000000e+00 
layer_sizes=10 4 4 
scale_included=0
neurons (num_inputs, activation_function, activation_steepness)=(0, 0, 0.00000000000000000000e+00) (0, 0, 0.00000000000000000000e+00) (0, 0, 0.00000000000000000000e+00) (0, 0, 0.00000000000000000000e+00) (0, 0, 0.00000000000000000000e+00) (0, 0, 0.00000000000000000000e+00) (0, 0, 0.00000000000000000000e+00) (0, 0, 0.00000000000000000000e+00) (0, 0, 0.00000000000000000000e+00) (0, 0, 0.00000000000000000000e+00) (10, 5, 5.00000000000000000000e-01) (10, 5, 5.00000000000000000000e-01) (10, 5, 5.00000000000000000000e-01) (0, 5, 0.00000000000000000000e+00) (4, 5, 5.00000000000000000000e-01) (4, 5, 5.00000000000000000000e-01) (4, 5, 5.00000000000000000000e-01) (0, 5, 0.00000000000000000000e+00) 
connections (connected_to_neuron, weight)=(0, 2.98803091049194335938e+00) (1, 2.61061501502990722656e+00) (2, 2.03779296875000000000e+01) (3, 8.94782352447509765625e+00) (4, 3.17010974884033203125e+01) (5, 6.91983509063720703125e+00) (6, 2.91071963310241699219e+00) (7, -8.54954719543457031250e+00) (8, 3.35789656639099121094e+00) (9, -1.60046148300170898438e+00) (0, 2.98699522018432617188e+00) (1, 8.01358032226562500000e+00) (2, 9.78318595886230468750e+00) (3, -2.27353477478027343750e+00) (4, -2.96193385124206542969e+00) (5, -1.89908182621002197266e+00) (6, 4.97164011001586914062e+00) (7, 3.44668841361999511719e+00) (8, -2.83079886436462402344e+00) (9, -1.13755226135253906250e-01) (0, -4.33945029973983764648e-01) (1, -1.40235531330108642578e+00) (2, 7.77102947235107421875e+00) (3, 1.11359514296054840088e-01) (4, 6.62822771072387695312e+00) (5, 1.34624525904655456543e-01) (6, -1.07174654006958007812e+01) (7, -3.22823715209960937500e+00) (8, 2.14447617530822753906e-01) (9, 8.04822817444801330566e-02) (10, 7.85818786621093750000e+02) (11, 1.50000000000000000000e+03) (12, 1.23310766601562500000e+03) (13, 4.02001068115234375000e+02) (10, -1.29849824905395507812e+01) (11, -1.24421615600585937500e+01) (12, -1.47244052886962890625e+01) (13, -5.54605007171630859375e+00) (10, 3.19696559906005859375e+01) (11, -3.36826438903808593750e+01) (12, 9.67046279907226562500e+01) (13, -2.89686977863311767578e-01) 
