FANN_FLO_2.1
num_layers=3
learning_rate=0.700000
connection_rate=1.000000
network_type=0
learning_momentum=0.000000
training_algorithm=2
train_error_function=1
train_stop_function=0
cascade_output_change_fraction=0.010000
quickprop_decay=-0.000100
quickprop_mu=1.750000
rprop_increase_factor=1.200000
rprop_decrease_factor=0.500000
rprop_delta_min=0.000000
rprop_delta_max=50.000000
rprop_delta_zero=0.100000
cascade_output_stagnation_epochs=12
cascade_candidate_change_fraction=0.010000
cascade_candidate_stagnation_epochs=12
cascade_max_out_epochs=150
cascade_min_out_epochs=50
cascade_max_cand_epochs=150
cascade_min_cand_epochs=50
cascade_num_candidate_groups=2
bit_fail_limit=3.49999994039535522461e-01
cascade_candidate_limit=1.00000000000000000000e+03
cascade_weight_multiplier=4.00000005960464477539e-01
cascade_activation_functions_count=10
cascade_activation_functions=3 5 7 8 10 11 14 15 16 17 
cascade_activation_steepnesses_count=4
cascade_activation_steepnesses=2.50000000000000000000e-01 5.00000000000000000000e-01 7.50000000000000000000e-01 1.00000000000000000000e+00 
layer_sizes=4 4 5 
scale_included=0
neurons (num_inputs, activation_function, activation_steepness)=(0, 0, 0.00000000000000000000e+00) (0, 0, 0.00000000000000000000e+00) (0, 0, 0.00000000000000000000e+00) (0, 0, 0.00000000000000000000e+00) (4, 5, 5.00000000000000000000e-01) (4, 5, 5.00000000000000000000e-01) (4, 5, 5.00000000000000000000e-01) (0, 5, 0.00000000000000000000e+00) (4, 5, 5.00000000000000000000e-01) (4, 5, 5.00000000000000000000e-01) (4, 5, 5.00000000000000000000e-01) (4, 5, 5.00000000000000000000e-01) (0, 5, 0.00000000000000000000e+00) 
connections (connected_to_neuron, weight)=(0, 7.68472051620483398438e+00) (1, 2.58375024795532226562e+00) (2, -3.01724934577941894531e+00) (3, -1.38847839832305908203e+00) (0, -3.28024315834045410156e+00) (1, -1.60446929931640625000e+01) (2, 3.33628368377685546875e+00) (3, 9.86540853977203369141e-01) (0, 7.01914739608764648438e+00) (1, -2.07896209716796875000e+02) (2, 2.23075313568115234375e+01) (3, -3.36353158950805664062e+00) (4, -4.95790557861328125000e+01) (5, 2.09985168457031250000e+02) (6, -1.76348648071289062500e+02) (7, -3.98138198852539062500e+01) (4, -1.08945907592773437500e+02) (5, -5.57018280029296875000e+01) (6, 8.25524520874023437500e+01) (7, -5.79403400421142578125e+00) (4, 5.27953720092773437500e+01) (5, 5.57086486816406250000e+01) (6, -2.05634651184082031250e+01) (7, -3.69867858886718750000e+01) (4, 1.10569908142089843750e+02) (5, -2.25742675781250000000e+02) (6, 1.13502838134765625000e+02) (7, -1.12187011718750000000e+02) 
