FANN_FLO_2.1
num_layers=3
learning_rate=0.700000
connection_rate=1.000000
network_type=0
learning_momentum=0.000000
training_algorithm=2
train_error_function=1
train_stop_function=0
cascade_output_change_fraction=0.010000
quickprop_decay=-0.000100
quickprop_mu=1.750000
rprop_increase_factor=1.200000
rprop_decrease_factor=0.500000
rprop_delta_min=0.000000
rprop_delta_max=50.000000
rprop_delta_zero=0.100000
cascade_output_stagnation_epochs=12
cascade_candidate_change_fraction=0.010000
cascade_candidate_stagnation_epochs=12
cascade_max_out_epochs=150
cascade_min_out_epochs=50
cascade_max_cand_epochs=150
cascade_min_cand_epochs=50
cascade_num_candidate_groups=2
bit_fail_limit=3.49999994039535522461e-01
cascade_candidate_limit=1.00000000000000000000e+03
cascade_weight_multiplier=4.00000005960464477539e-01
cascade_activation_functions_count=10
cascade_activation_functions=3 5 7 8 10 11 14 15 16 17 
cascade_activation_steepnesses_count=4
cascade_activation_steepnesses=2.50000000000000000000e-01 5.00000000000000000000e-01 7.50000000000000000000e-01 1.00000000000000000000e+00 
layer_sizes=14 4 7 
scale_included=0
neurons (num_inputs, activation_function, activation_steepness)=(0, 0, 0.00000000000000000000e+00) (0, 0, 0.00000000000000000000e+00) (0, 0, 0.00000000000000000000e+00) (0, 0, 0.00000000000000000000e+00) (0, 0, 0.00000000000000000000e+00) (0, 0, 0.00000000000000000000e+00) (0, 0, 0.00000000000000000000e+00) (0, 0, 0.00000000000000000000e+00) (0, 0, 0.00000000000000000000e+00) (0, 0, 0.00000000000000000000e+00) (0, 0, 0.00000000000000000000e+00) (0, 0, 0.00000000000000000000e+00) (0, 0, 0.00000000000000000000e+00) (0, 0, 0.00000000000000000000e+00) (14, 5, 5.00000000000000000000e-01) (14, 5, 5.00000000000000000000e-01) (14, 5, 5.00000000000000000000e-01) (0, 5, 0.00000000000000000000e+00) (4, 5, 5.00000000000000000000e-01) (4, 5, 5.00000000000000000000e-01) (4, 5, 5.00000000000000000000e-01) (4, 5, 5.00000000000000000000e-01) (4, 5, 5.00000000000000000000e-01) (4, 5, 5.00000000000000000000e-01) (0, 5, 0.00000000000000000000e+00) 
connections (connected_to_neuron, weight)=(0, -1.76469434518367052078e-03) (1, -1.71338701248168945312e+00) (2, 1.88097631931304931641e+00) (3, 5.79431533813476562500e+00) (4, -2.56696701049804687500e-01) (5, -8.17151904106140136719e-01) (6, -2.39893841743469238281e+00) (7, 1.22050857543945312500e+00) (8, -2.74740171432495117188e+00) (9, -1.00367486476898193359e+00) (10, -1.89125406742095947266e+00) (11, -1.47919869422912597656e+00) (12, 4.51383495330810546875e+00) (13, -4.90696132183074951172e-01) (0, 4.58291292190551757812e+00) (1, 4.91949319839477539062e+00) (2, 2.86538290977478027344e+00) (3, -1.12811717987060546875e+01) (4, 8.24657440185546875000e-01) (5, 1.60613015294075012207e-01) (6, -8.65558528900146484375e+00) (7, 2.76902980804443359375e+01) (8, -1.22464780807495117188e+01) (9, -1.77631705999374389648e-01) (10, -6.84399890899658203125e+00) (11, -8.93784966319799423218e-03) (12, 4.38341140747070312500e+00) (13, -9.41815320402383804321e-03) (0, 4.45812129974365234375e+00) (1, -6.59081935882568359375e+00) (2, 5.60530602931976318359e-01) (3, -6.04062700271606445312e+00) (4, -7.56672322750091552734e-02) (5, -5.42100846767425537109e-01) (6, 3.44825959205627441406e+00) (7, -2.17612419128417968750e+01) (8, 1.24305629730224609375e+01) (9, -3.34276318550109863281e+00) (10, 3.45813632011413574219e+00) (11, -5.24884700775146484375e+00) (12, 3.41885900497436523438e+00) (13, -7.49914124608039855957e-02) (14, -1.35366649627685546875e+01) (15, -1.23314294815063476562e+01) (16, 6.62067556381225585938e+00) (17, -2.28522129058837890625e+01) (14, -1.92731630802154541016e+00) (15, -1.59317178726196289062e+01) (16, -1.76506462097167968750e+01) (17, -1.27003135681152343750e+01) (14, 5.78832550048828125000e+01) (15, -7.11762309074401855469e-01) (16, 3.82186965942382812500e+01) (17, -5.98140859603881835938e+00) (14, -8.67860031127929687500e+00) (15, 2.54856071472167968750e+01) (16, 2.23361930847167968750e+01) (17, -1.26182193756103515625e+01) (14, -1.41851196289062500000e+01) (15, 1.43117914199829101562e+01) (16, -1.03358545303344726562e+01) (17, -2.58795452117919921875e+01) (14, 4.48961715698242187500e+01) (15, 8.19224929809570312500e+00) (16, -1.10848913192749023438e+01) (17, -2.91739199310541152954e-02) 
