FANN_FLO_2.1
num_layers=3
learning_rate=0.700000
connection_rate=1.000000
network_type=0
learning_momentum=0.000000
training_algorithm=2
train_error_function=1
train_stop_function=0
cascade_output_change_fraction=0.010000
quickprop_decay=-0.000100
quickprop_mu=1.750000
rprop_increase_factor=1.200000
rprop_decrease_factor=0.500000
rprop_delta_min=0.000000
rprop_delta_max=50.000000
rprop_delta_zero=0.100000
cascade_output_stagnation_epochs=12
cascade_candidate_change_fraction=0.010000
cascade_candidate_stagnation_epochs=12
cascade_max_out_epochs=150
cascade_min_out_epochs=50
cascade_max_cand_epochs=150
cascade_min_cand_epochs=50
cascade_num_candidate_groups=2
bit_fail_limit=3.49999994039535522461e-01
cascade_candidate_limit=1.00000000000000000000e+03
cascade_weight_multiplier=4.00000005960464477539e-01
cascade_activation_functions_count=10
cascade_activation_functions=3 5 7 8 10 11 14 15 16 17 
cascade_activation_steepnesses_count=4
cascade_activation_steepnesses=2.50000000000000000000e-01 5.00000000000000000000e-01 7.50000000000000000000e-01 1.00000000000000000000e+00 
layer_sizes=11 4 5 
scale_included=0
neurons (num_inputs, activation_function, activation_steepness)=(0, 0, 0.00000000000000000000e+00) (0, 0, 0.00000000000000000000e+00) (0, 0, 0.00000000000000000000e+00) (0, 0, 0.00000000000000000000e+00) (0, 0, 0.00000000000000000000e+00) (0, 0, 0.00000000000000000000e+00) (0, 0, 0.00000000000000000000e+00) (0, 0, 0.00000000000000000000e+00) (0, 0, 0.00000000000000000000e+00) (0, 0, 0.00000000000000000000e+00) (0, 0, 0.00000000000000000000e+00) (11, 5, 5.00000000000000000000e-01) (11, 5, 5.00000000000000000000e-01) (11, 5, 5.00000000000000000000e-01) (0, 5, 0.00000000000000000000e+00) (4, 5, 5.00000000000000000000e-01) (4, 5, 5.00000000000000000000e-01) (4, 5, 5.00000000000000000000e-01) (4, 5, 5.00000000000000000000e-01) (0, 5, 0.00000000000000000000e+00) 
connections (connected_to_neuron, weight)=(0, 3.47453802824020385742e-01) (1, -5.68770027160644531250e+00) (2, 1.66286313533782958984e+00) (3, -1.16101765632629394531e+00) (4, 2.15023398399353027344e-01) (5, 1.00889897346496582031e+00) (6, -2.91920065879821777344e-01) (7, -2.99110770225524902344e+00) (8, 7.86393642425537109375e+00) (9, -4.22640609741210937500e+00) (10, -9.40042287111282348633e-02) (0, 1.56111276149749755859e+00) (1, -2.66246008872985839844e+00) (2, -3.08629584312438964844e+00) (3, -5.43901300430297851562e+00) (4, 6.21141195297241210938e-01) (5, 3.74772071838378906250e+01) (6, 5.97903788089752197266e-01) (7, -4.51190795898437500000e+01) (8, -2.22329406738281250000e+01) (9, 5.88438928127288818359e-01) (10, 1.03662297129631042480e-01) (0, -2.73142516613006591797e-01) (1, -2.79231567382812500000e+01) (2, -8.01084458827972412109e-01) (3, 1.03770437240600585938e+01) (4, 4.10115867853164672852e-01) (5, -5.13019323348999023438e+00) (6, 1.80159926414489746094e+00) (7, -5.13845443725585937500e+01) (8, 3.37213110923767089844e+00) (9, 6.33176028728485107422e-01) (10, -3.57418149709701538086e-01) (11, 1.10664970397949218750e+02) (12, -8.22654342651367187500e+01) (13, 2.92892765998840332031e+00) (14, -2.69759330749511718750e+01) (11, -1.14997873306274414062e+01) (12, 3.22841858863830566406e+00) (13, -7.07743501663208007812e+00) (14, -1.21390037536621093750e+01) (11, -1.34865589141845703125e+01) (12, -7.04130506515502929688e+00) (13, 9.12179088592529296875e+00) (14, -5.59928774833679199219e-01) (11, 2.26915836334228515625e+01) (12, 1.38838624954223632812e+01) (13, -4.19782018661499023438e+00) (14, -9.59093284606933593750e+00) 
