FANN_FLO_2.1
num_layers=3
learning_rate=0.700000
connection_rate=1.000000
network_type=0
learning_momentum=0.000000
training_algorithm=2
train_error_function=1
train_stop_function=0
cascade_output_change_fraction=0.010000
quickprop_decay=-0.000100
quickprop_mu=1.750000
rprop_increase_factor=1.200000
rprop_decrease_factor=0.500000
rprop_delta_min=0.000000
rprop_delta_max=50.000000
rprop_delta_zero=0.100000
cascade_output_stagnation_epochs=12
cascade_candidate_change_fraction=0.010000
cascade_candidate_stagnation_epochs=12
cascade_max_out_epochs=150
cascade_min_out_epochs=50
cascade_max_cand_epochs=150
cascade_min_cand_epochs=50
cascade_num_candidate_groups=2
bit_fail_limit=3.49999994039535522461e-01
cascade_candidate_limit=1.00000000000000000000e+03
cascade_weight_multiplier=4.00000005960464477539e-01
cascade_activation_functions_count=10
cascade_activation_functions=3 5 7 8 10 11 14 15 16 17 
cascade_activation_steepnesses_count=4
cascade_activation_steepnesses=2.50000000000000000000e-01 5.00000000000000000000e-01 7.50000000000000000000e-01 1.00000000000000000000e+00 
layer_sizes=19 4 5 
scale_included=0
neurons (num_inputs, activation_function, activation_steepness)=(0, 0, 0.00000000000000000000e+00) (0, 0, 0.00000000000000000000e+00) (0, 0, 0.00000000000000000000e+00) (0, 0, 0.00000000000000000000e+00) (0, 0, 0.00000000000000000000e+00) (0, 0, 0.00000000000000000000e+00) (0, 0, 0.00000000000000000000e+00) (0, 0, 0.00000000000000000000e+00) (0, 0, 0.00000000000000000000e+00) (0, 0, 0.00000000000000000000e+00) (0, 0, 0.00000000000000000000e+00) (0, 0, 0.00000000000000000000e+00) (0, 0, 0.00000000000000000000e+00) (0, 0, 0.00000000000000000000e+00) (0, 0, 0.00000000000000000000e+00) (0, 0, 0.00000000000000000000e+00) (0, 0, 0.00000000000000000000e+00) (0, 0, 0.00000000000000000000e+00) (0, 0, 0.00000000000000000000e+00) (19, 5, 5.00000000000000000000e-01) (19, 5, 5.00000000000000000000e-01) (19, 5, 5.00000000000000000000e-01) (0, 5, 0.00000000000000000000e+00) (4, 5, 5.00000000000000000000e-01) (4, 5, 5.00000000000000000000e-01) (4, 5, 5.00000000000000000000e-01) (4, 5, 5.00000000000000000000e-01) (0, 5, 0.00000000000000000000e+00) 
connections (connected_to_neuron, weight)=(0, 2.18552455306053161621e-01) (1, 7.82059717178344726562e+00) (2, -1.47186040878295898438e+00) (3, 1.15233993530273437500e+01) (4, 9.88048911094665527344e-02) (5, 2.04863011837005615234e-01) (6, -8.87030959129333496094e-02) (7, 6.28457794189453125000e+01) (8, 2.98907732963562011719e+00) (9, 2.13975982666015625000e+01) (10, 1.82761609554290771484e+00) (11, -2.38864660263061523438e+00) (12, -1.44397169351577758789e-01) (13, -1.90592551231384277344e+00) (14, -1.86496943235397338867e-01) (15, -2.28207516670227050781e+00) (16, 7.34364223480224609375e+00) (17, 1.69732236862182617188e+00) (18, 8.17908644676208496094e-02) (0, -1.91808175295591354370e-02) (1, 1.63276171684265136719e+00) (2, -4.35587316751480102539e-01) (3, 1.61225736141204833984e+00) (4, -7.22400322556495666504e-02) (5, 3.95947210490703582764e-02) (6, 2.50965237617492675781e-01) (7, 8.55898952484130859375e+00) (8, 1.43827751278877258301e-01) (9, 2.07812976837158203125e+00) (10, 2.34674263000488281250e+00) (11, -2.79544174671173095703e-01) (12, -1.08106040954589843750e+00) (13, 7.38396719098091125488e-02) (14, -9.76383313536643981934e-02) (15, -1.37660931795835494995e-02) (16, -8.41463375091552734375e+00) (17, 3.69483143091201782227e-01) (18, 3.88682901859283447266e-01) (0, 3.29719305038452148438e-01) (1, -9.05905842781066894531e-01) (2, 3.72231692075729370117e-01) (3, 2.83481144905090332031e+00) (4, -3.07005614042282104492e-01) (5, -4.88513708114624023438e-01) (6, 2.86166579462587833405e-03) (7, -1.04322969913482666016e+00) (8, 4.53384846448898315430e-01) (9, -1.26939311623573303223e-01) (10, -2.63763815164566040039e-01) (11, 3.05802226066589355469e+00) (12, -7.16409921646118164062e-01) (13, 2.15991115570068359375e+00) (14, 9.91784930229187011719e-02) (15, 5.02376616001129150391e-01) (16, 2.36615681648254394531e+00) (17, 1.15094244480133056641e-01) (18, 1.06725230813026428223e-01) (19, 2.68490219116210937500e+00) (20, -8.12981700897216796875e+00) (21, 8.43882656097412109375e+00) (22, -5.58258628845214843750e+00) (19, 9.46982479095458984375e+00) (20, 5.31775016784667968750e+01) (21, -2.67983794212341308594e+00) (22, -1.42610073089599609375e+00) (19, -7.04270839691162109375e+00) (20, 4.02879095077514648438e+00) (21, 9.64093494415283203125e+00) (22, -7.89528012275695800781e-01) (19, -1.27447676658630371094e+00) (20, -3.45582842826843261719e+00) (21, -9.62076663970947265625e+00) (22, -7.75568389892578125000e+00) 
