FANN_FLO_2.1
num_layers=3
learning_rate=0.700000
connection_rate=1.000000
network_type=0
learning_momentum=0.000000
training_algorithm=2
train_error_function=1
train_stop_function=0
cascade_output_change_fraction=0.010000
quickprop_decay=-0.000100
quickprop_mu=1.750000
rprop_increase_factor=1.200000
rprop_decrease_factor=0.500000
rprop_delta_min=0.000000
rprop_delta_max=50.000000
rprop_delta_zero=0.100000
cascade_output_stagnation_epochs=12
cascade_candidate_change_fraction=0.010000
cascade_candidate_stagnation_epochs=12
cascade_max_out_epochs=150
cascade_min_out_epochs=50
cascade_max_cand_epochs=150
cascade_min_cand_epochs=50
cascade_num_candidate_groups=2
bit_fail_limit=3.49999994039535522461e-01
cascade_candidate_limit=1.00000000000000000000e+03
cascade_weight_multiplier=4.00000005960464477539e-01
cascade_activation_functions_count=10
cascade_activation_functions=3 5 7 8 10 11 14 15 16 17 
cascade_activation_steepnesses_count=4
cascade_activation_steepnesses=2.50000000000000000000e-01 5.00000000000000000000e-01 7.50000000000000000000e-01 1.00000000000000000000e+00 
layer_sizes=19 4 6 
scale_included=0
neurons (num_inputs, activation_function, activation_steepness)=(0, 0, 0.00000000000000000000e+00) (0, 0, 0.00000000000000000000e+00) (0, 0, 0.00000000000000000000e+00) (0, 0, 0.00000000000000000000e+00) (0, 0, 0.00000000000000000000e+00) (0, 0, 0.00000000000000000000e+00) (0, 0, 0.00000000000000000000e+00) (0, 0, 0.00000000000000000000e+00) (0, 0, 0.00000000000000000000e+00) (0, 0, 0.00000000000000000000e+00) (0, 0, 0.00000000000000000000e+00) (0, 0, 0.00000000000000000000e+00) (0, 0, 0.00000000000000000000e+00) (0, 0, 0.00000000000000000000e+00) (0, 0, 0.00000000000000000000e+00) (0, 0, 0.00000000000000000000e+00) (0, 0, 0.00000000000000000000e+00) (0, 0, 0.00000000000000000000e+00) (0, 0, 0.00000000000000000000e+00) (19, 5, 5.00000000000000000000e-01) (19, 5, 5.00000000000000000000e-01) (19, 5, 5.00000000000000000000e-01) (0, 5, 0.00000000000000000000e+00) (4, 5, 5.00000000000000000000e-01) (4, 5, 5.00000000000000000000e-01) (4, 5, 5.00000000000000000000e-01) (4, 5, 5.00000000000000000000e-01) (4, 5, 5.00000000000000000000e-01) (0, 5, 0.00000000000000000000e+00) 
connections (connected_to_neuron, weight)=(0, 7.62260481715202331543e-02) (1, 4.71275821328163146973e-02) (2, -2.79549937695264816284e-02) (3, -9.43148732185363769531e-02) (4, 4.32291068136692047119e-03) (5, 5.57267293334007263184e-03) (6, 1.64989270269870758057e-02) (7, 9.67248529195785522461e-03) (8, 2.46460698544979095459e-02) (9, -1.69318113476037979126e-02) (10, 1.41707183793187141418e-02) (11, 2.51334328204393386841e-02) (12, 3.98554727435111999512e-02) (13, 2.04989425837993621826e-02) (14, -1.25673664733767509460e-02) (15, 6.96501284837722778320e-02) (16, 4.21203672885894775391e-02) (17, 4.26578447222709655762e-02) (18, -8.57136324048042297363e-02) (0, -7.15971142053604125977e-02) (1, -5.79978674650192260742e-02) (2, 7.12988078594207763672e-02) (3, 9.47741419076919555664e-02) (4, 6.49595111608505249023e-02) (5, -1.96495261043310165405e-02) (6, 6.62489086389541625977e-02) (7, 4.07269895076751708984e-02) (8, 2.99229733645915985107e-02) (9, 6.38235062360763549805e-02) (10, -8.63080248236656188965e-02) (11, 5.74637018144130706787e-02) (12, 4.00495529174804687500e-02) (13, 6.08195550739765167236e-02) (14, -7.04912915825843811035e-02) (15, 4.57346849143505096436e-02) (16, -3.48575338721275329590e-02) (17, 3.50813828408718109131e-02) (18, -3.77663895487785339355e-02) (0, 7.48149529099464416504e-02) (1, -4.02725487947463989258e-02) (2, 4.53017987310886383057e-02) (3, -1.10143302008509635925e-02) (4, 8.48608836531639099121e-02) (5, -1.48427281528711318970e-02) (6, -9.05153900384902954102e-02) (7, -2.77064815163612365723e-02) (8, -4.51926030218601226807e-02) (9, 5.16049787402153015137e-02) (10, -8.50486382842063903809e-02) (11, -3.09062339365482330322e-02) (12, 8.00078660249710083008e-02) (13, -4.30465042591094970703e-02) (14, -5.96074275672435760498e-02) (15, 7.47819989919662475586e-02) (16, -7.80869945883750915527e-02) (17, 2.07430496811866760254e-02) (18, 4.10309098660945892334e-02) (19, 6.26399964094161987305e-02) (20, -4.93339784443378448486e-02) (21, 4.85441274940967559814e-03) (22, 7.63319730758666992188e-02) (19, -9.18702781200408935547e-02) (20, -5.50960376858711242676e-02) (21, 3.71515266597270965576e-02) (22, -6.23615682125091552734e-02) (19, 9.06386449933052062988e-02) (20, -9.77060124278068542480e-02) (21, 7.27198123931884765625e-02) (22, -4.71277460455894470215e-02) (19, 7.71089419722557067871e-02) (20, -6.75527378916740417480e-02) (21, 9.81740579009056091309e-02) (22, -3.39053869247436523438e-02) (19, -8.26918482780456542969e-02) (20, -1.66686736047267913818e-02) (21, -2.44207754731178283691e-02) (22, -1.03983301669359207153e-02) 
