FANN_FLO_2.1
num_layers=3
learning_rate=0.700000
connection_rate=1.000000
network_type=0
learning_momentum=0.000000
training_algorithm=2
train_error_function=1
train_stop_function=0
cascade_output_change_fraction=0.010000
quickprop_decay=-0.000100
quickprop_mu=1.750000
rprop_increase_factor=1.200000
rprop_decrease_factor=0.500000
rprop_delta_min=0.000000
rprop_delta_max=50.000000
rprop_delta_zero=0.100000
cascade_output_stagnation_epochs=12
cascade_candidate_change_fraction=0.010000
cascade_candidate_stagnation_epochs=12
cascade_max_out_epochs=150
cascade_min_out_epochs=50
cascade_max_cand_epochs=150
cascade_min_cand_epochs=50
cascade_num_candidate_groups=2
bit_fail_limit=3.49999994039535522461e-01
cascade_candidate_limit=1.00000000000000000000e+03
cascade_weight_multiplier=4.00000005960464477539e-01
cascade_activation_functions_count=10
cascade_activation_functions=3 5 7 8 10 11 14 15 16 17 
cascade_activation_steepnesses_count=4
cascade_activation_steepnesses=2.50000000000000000000e-01 5.00000000000000000000e-01 7.50000000000000000000e-01 1.00000000000000000000e+00 
layer_sizes=17 4 3 
scale_included=0
neurons (num_inputs, activation_function, activation_steepness)=(0, 0, 0.00000000000000000000e+00) (0, 0, 0.00000000000000000000e+00) (0, 0, 0.00000000000000000000e+00) (0, 0, 0.00000000000000000000e+00) (0, 0, 0.00000000000000000000e+00) (0, 0, 0.00000000000000000000e+00) (0, 0, 0.00000000000000000000e+00) (0, 0, 0.00000000000000000000e+00) (0, 0, 0.00000000000000000000e+00) (0, 0, 0.00000000000000000000e+00) (0, 0, 0.00000000000000000000e+00) (0, 0, 0.00000000000000000000e+00) (0, 0, 0.00000000000000000000e+00) (0, 0, 0.00000000000000000000e+00) (0, 0, 0.00000000000000000000e+00) (0, 0, 0.00000000000000000000e+00) (0, 0, 0.00000000000000000000e+00) (17, 5, 5.00000000000000000000e-01) (17, 5, 5.00000000000000000000e-01) (17, 5, 5.00000000000000000000e-01) (0, 5, 0.00000000000000000000e+00) (4, 5, 5.00000000000000000000e-01) (4, 5, 5.00000000000000000000e-01) (0, 5, 0.00000000000000000000e+00) 
connections (connected_to_neuron, weight)=(0, -9.60693657398223876953e-01) (1, 2.37425494194030761719e+00) (2, 7.15461158752441406250e+00) (3, -1.28602993488311767578e+00) (4, -7.02324914932250976562e+00) (5, 2.26424193382263183594e+00) (6, -1.79935991764068603516e+00) (7, 7.01485633850097656250e+00) (8, -1.57470062375068664551e-01) (9, 7.07408189773559570312e+00) (10, 5.80587911605834960938e+00) (11, -2.74228978157043457031e+00) (12, -5.17772257328033447266e-01) (13, -1.89948201179504394531e+00) (14, -5.78634366393089294434e-02) (15, -1.36131596565246582031e+00) (16, 3.43815356492996215820e-01) (0, 2.50257104635238647461e-01) (1, 1.12437538802623748779e-01) (2, -4.43308025598526000977e-01) (3, 5.84728062152862548828e-01) (4, 6.42056465148925781250e-01) (5, 4.24947962164878845215e-02) (6, 2.92020887136459350586e-01) (7, -4.59946185350418090820e-01) (8, 1.33814781904220581055e-01) (9, -4.02239054441452026367e-01) (10, -4.03423041105270385742e-01) (11, 4.00501996278762817383e-01) (12, 7.82467424869537353516e-03) (13, 2.46650204062461853027e-01) (14, 4.74325329065322875977e-01) (15, 3.35200190544128417969e-01) (16, 1.90055057406425476074e-01) (0, -8.32519680261611938477e-02) (1, 4.02508378028869628906e-01) (2, 2.75613212585449218750e+00) (3, -6.48661628365516662598e-02) (4, -2.65496492385864257812e+00) (5, 7.98335969448089599609e-01) (6, 8.72288346290588378906e-02) (7, 1.53013479709625244141e+00) (8, -6.88705921173095703125e-01) (9, 3.97424578666687011719e-01) (10, 5.41825056076049804688e-01) (11, -1.26737058162689208984e-01) (12, -6.19916796684265136719e-01) (13, -5.47352254390716552734e-01) (14, -7.69310355186462402344e-01) (15, 1.21165171265602111816e-01) (16, 1.10525622963905334473e-01) (17, -7.16350603103637695312e+00) (18, 3.21009039878845214844e-01) (19, -1.25479817390441894531e-01) (20, -1.18948332965373992920e-02) (17, 7.18124580383300781250e+00) (18, -3.09606254100799560547e-01) (19, 5.94243228435516357422e-01) (20, 1.44182264804840087891e-01) 
