FANN_FLO_2.1
num_layers=3
learning_rate=0.700000
connection_rate=1.000000
network_type=0
learning_momentum=0.000000
training_algorithm=2
train_error_function=1
train_stop_function=0
cascade_output_change_fraction=0.010000
quickprop_decay=-0.000100
quickprop_mu=1.750000
rprop_increase_factor=1.200000
rprop_decrease_factor=0.500000
rprop_delta_min=0.000000
rprop_delta_max=50.000000
rprop_delta_zero=0.100000
cascade_output_stagnation_epochs=12
cascade_candidate_change_fraction=0.010000
cascade_candidate_stagnation_epochs=12
cascade_max_out_epochs=150
cascade_min_out_epochs=50
cascade_max_cand_epochs=150
cascade_min_cand_epochs=50
cascade_num_candidate_groups=2
bit_fail_limit=3.49999994039535522461e-01
cascade_candidate_limit=1.00000000000000000000e+03
cascade_weight_multiplier=4.00000005960464477539e-01
cascade_activation_functions_count=10
cascade_activation_functions=3 5 7 8 10 11 14 15 16 17 
cascade_activation_steepnesses_count=4
cascade_activation_steepnesses=2.50000000000000000000e-01 5.00000000000000000000e-01 7.50000000000000000000e-01 1.00000000000000000000e+00 
layer_sizes=10 4 3 
scale_included=0
neurons (num_inputs, activation_function, activation_steepness)=(0, 0, 0.00000000000000000000e+00) (0, 0, 0.00000000000000000000e+00) (0, 0, 0.00000000000000000000e+00) (0, 0, 0.00000000000000000000e+00) (0, 0, 0.00000000000000000000e+00) (0, 0, 0.00000000000000000000e+00) (0, 0, 0.00000000000000000000e+00) (0, 0, 0.00000000000000000000e+00) (0, 0, 0.00000000000000000000e+00) (0, 0, 0.00000000000000000000e+00) (10, 5, 5.00000000000000000000e-01) (10, 5, 5.00000000000000000000e-01) (10, 5, 5.00000000000000000000e-01) (0, 5, 0.00000000000000000000e+00) (4, 5, 5.00000000000000000000e-01) (4, 5, 5.00000000000000000000e-01) (0, 5, 0.00000000000000000000e+00) 
connections (connected_to_neuron, weight)=(0, 2.27824425697326660156e+00) (1, 2.15554690361022949219e+00) (2, 2.19740247726440429688e+00) (3, -5.29640793800354003906e-01) (4, 2.16071033477783203125e+00) (5, 2.33781671524047851562e+00) (6, 2.31804990768432617188e+00) (7, 2.29774737358093261719e+00) (8, 2.35119199752807617188e+00) (9, 7.69126266241073608398e-02) (0, 9.29385483264923095703e-01) (1, 8.37975442409515380859e-01) (2, 8.58374595642089843750e-01) (3, 2.20891028642654418945e-01) (4, 9.25781071186065673828e-01) (5, 9.53361809253692626953e-01) (6, 9.49941694736480712891e-01) (7, 9.72640752792358398438e-01) (8, 8.27677547931671142578e-01) (9, 8.80665555596351623535e-02) (0, 5.74842262268066406250e+00) (1, 5.91769647598266601562e+00) (2, 5.91282272338867187500e+00) (3, -1.53523898124694824219e+00) (4, 5.90373897552490234375e+00) (5, 5.72622823715209960938e+00) (6, 5.91679811477661132812e+00) (7, 5.80971431732177734375e+00) (8, 5.90444850921630859375e+00) (9, 8.60594570636749267578e-01) (10, 1.13437986373901367188e+00) (11, 1.06566023826599121094e+00) (12, 5.76079177856445312500e+00) (13, -2.08503827452659606934e-02) (10, -7.57201850414276123047e-01) (11, -8.43435823917388916016e-01) (12, -5.90216970443725585938e+00) (13, 3.12810465693473815918e-02) 
