FANN_FLO_2.1
num_layers=3
learning_rate=0.700000
connection_rate=1.000000
network_type=0
learning_momentum=0.000000
training_algorithm=2
train_error_function=1
train_stop_function=0
cascade_output_change_fraction=0.010000
quickprop_decay=-0.000100
quickprop_mu=1.750000
rprop_increase_factor=1.200000
rprop_decrease_factor=0.500000
rprop_delta_min=0.000000
rprop_delta_max=50.000000
rprop_delta_zero=0.100000
cascade_output_stagnation_epochs=12
cascade_candidate_change_fraction=0.010000
cascade_candidate_stagnation_epochs=12
cascade_max_out_epochs=150
cascade_min_out_epochs=50
cascade_max_cand_epochs=150
cascade_min_cand_epochs=50
cascade_num_candidate_groups=2
bit_fail_limit=3.49999994039535522461e-01
cascade_candidate_limit=1.00000000000000000000e+03
cascade_weight_multiplier=4.00000005960464477539e-01
cascade_activation_functions_count=10
cascade_activation_functions=3 5 7 8 10 11 14 15 16 17 
cascade_activation_steepnesses_count=4
cascade_activation_steepnesses=2.50000000000000000000e-01 5.00000000000000000000e-01 7.50000000000000000000e-01 1.00000000000000000000e+00 
layer_sizes=14 4 4 
scale_included=0
neurons (num_inputs, activation_function, activation_steepness)=(0, 0, 0.00000000000000000000e+00) (0, 0, 0.00000000000000000000e+00) (0, 0, 0.00000000000000000000e+00) (0, 0, 0.00000000000000000000e+00) (0, 0, 0.00000000000000000000e+00) (0, 0, 0.00000000000000000000e+00) (0, 0, 0.00000000000000000000e+00) (0, 0, 0.00000000000000000000e+00) (0, 0, 0.00000000000000000000e+00) (0, 0, 0.00000000000000000000e+00) (0, 0, 0.00000000000000000000e+00) (0, 0, 0.00000000000000000000e+00) (0, 0, 0.00000000000000000000e+00) (0, 0, 0.00000000000000000000e+00) (14, 5, 5.00000000000000000000e-01) (14, 5, 5.00000000000000000000e-01) (14, 5, 5.00000000000000000000e-01) (0, 5, 0.00000000000000000000e+00) (4, 5, 5.00000000000000000000e-01) (4, 5, 5.00000000000000000000e-01) (4, 5, 5.00000000000000000000e-01) (0, 5, 0.00000000000000000000e+00) 
connections (connected_to_neuron, weight)=(0, 5.65149426460266113281e-01) (1, -5.82049190998077392578e-01) (2, 1.95787322521209716797e+00) (3, -1.16323986053466796875e+01) (4, 5.79278230667114257812e-01) (5, 1.88658535480499267578e+00) (6, 9.70049190521240234375e+00) (7, 5.79602658748626708984e-01) (8, 2.01283788681030273438e+00) (9, 2.98085284233093261719e+00) (10, 5.58931541442871093750e+00) (11, 1.94634544849395751953e+00) (12, -1.72143900394439697266e+00) (13, -3.27559256553649902344e+00) (0, 1.33681035041809082031e+00) (1, 3.56514191627502441406e+00) (2, 1.19547688961029052734e+00) (3, 2.30676898956298828125e+01) (4, 8.58908593654632568359e-01) (5, 1.18240618705749511719e+00) (6, -7.92107391357421875000e+00) (7, 7.93678522109985351562e-01) (8, 1.24406599998474121094e+00) (9, 1.46126472949981689453e+00) (10, 2.12657570838928222656e+00) (11, 1.29833436012268066406e+00) (12, -2.02103471755981445312e+00) (13, -4.77264553308486938477e-01) (0, 2.76633191108703613281e+00) (1, -2.64787364006042480469e+00) (2, 2.73389220237731933594e+00) (3, -2.21982574462890625000e+01) (4, -9.47858750820159912109e-01) (5, 2.65971636772155761719e+00) (6, 1.68326759338378906250e+01) (7, -1.02758157253265380859e+00) (8, 2.71425294876098632812e+00) (9, 1.94219660758972167969e+00) (10, 5.51639032363891601562e+00) (11, 2.69503974914550781250e+00) (12, -6.99390792846679687500e+00) (13, -4.38791573047637939453e-01) (14, 1.82848548889160156250e+01) (15, -3.88364944458007812500e+01) (16, -3.58627319335937500000e+01) (17, -1.91429386138916015625e+01) (14, -4.73783187866210937500e+01) (15, 3.59529724121093750000e+01) (16, 3.64879074096679687500e+01) (17, -9.01162147521972656250e+00) (14, 1.50000000000000000000e+03) (15, 1.50000000000000000000e+03) (16, 1.05134912109375000000e+03) (17, 1.11776208496093750000e+03) 
